tree
version=v4
num_class=1
num_tree_per_iteration=1
label_index=0
max_feature_idx=44
objective=binary sigmoid:1
feature_names=ema_9_21_cross ema_21_50_cross price_vs_ema50 macd macd_hist macd_cross adx di_diff rsi_14 rsi_7 rsi_slope stochrsi_k stochrsi_d roc_5 roc_10 roc_20 atr_pct bb_width bb_position candle_range candle_body upper_wick lower_wick obv_slope vol_ratio vol_spike vwap_dev buy_pressure cvd_cum cvd_slope tfi consecutive_dir ret_mean_10 ret_std_10 ret_skew_20 ret_kurt_20 autocorr_1 hurst entropy price_zscore regime_trending regime_high_vol regime_squeeze regime_score price_above_ema200
feature_infos=[-1:1] [-1:1] [-0.24666267241290712:0.25406349300481906] [-201.07343067151623:197.75466081995592] [-70.677390774074766:70.928870130133191] [-1:1] [8.5314738408715449:73.01944197124196] [-59.694268212895508:55.445106780838792] [9.552738708001888:90.087284757781575] [4.2703275608204745:95.950931009601334] [-35.056827280541825:32.405388756231169] [0:100] [0:99.999999999999986] [-20.064702548008462:21.145860389350094] [-22.837572275549604:30.93127373567507] [-27.702815732245039:42.145808915374921] [0.0095186496797428181:0.056238236212508959] [0.015754805250032946:0.44286811911995072] [-0.4843581056775797:1.5292322042397635] [0.0029375930689048081:0.29588622621798721] [2.711901178256934e-06:0.16266128195371687] [0:0.099861086450184364] [0:0.15911788913862407] [-3.9289592412614769:4.5697551881618965] [0.14872716741335562:8.40578600436519] [0:1] [-0.14612383704904547:0.17471432090427819] [0:0.99999999999329903] [-1126065.5107566952:1165399.8168389623] [-1279321.9198401729:971673.83785871789] [-0.61717927530904793:0.86209646110868754] [-5:5] [-0.024699115397667205:0.027594065797564647] [0.002394856965208737:0.056082331224701597] [-3.8935275304543473:3.734768159895888] [-1.60527413477076:16.397851836826767] [-0.78701898509173862:0.5910814919352162] [-0.14529381152130513:0.12354414618602338] [0.92615570909546696:2.2764226758058181] [-4.7280400464840096:4.7371508588789428] [0:1] [0:1] [0:1] [1:3] [0:1]
tree_sizes=5369 5384 5372 5495 5279

Tree=0
num_leaves=51
num_cat=0
split_feature=6 1 44 6 34 34 10 39 26 11 6 3 13 7 37 2 6 14 17 3 35 17 34 38 20 9 33 2 34 7 26 3 17 19 22 29 34 6 34 13 11 12 15 6 30 35 10 37 13 30
split_gain=22.724 15.7109 19.0583 50.2594 32.7495 15.9819 14.289 16.9834 36.3403 13.3167 11.7842 14.9812 16.5328 13.0446 12.044 10.7788 15.6607 20.9888 10.1682 10.1561 9.71333 8.63375 13.0091 9.87284 7.74599 12.0141 9.39904 6.46516 12.5795 5.78725 16.0402 10.1861 5.66766 5.44242 5.25719 5.39389 5.16023 4.71237 5.70718 7.80915 7.96708 4.1583 8.26316 3.61523 2.59903 2.24362 1.72318 0.995423 0.788191 0.578024
threshold=42.841206082428279 1.0000000180025095e-35 1.0000000180025095e-35 15.630034466975262 0.78424642841116121 1.63725181765741 5.9325973982056199 -1.9248955664099159 -0.062387409924525995 32.92163753557724 21.918889221997013 1.0000000180025095e-35 -3.2535449668407037 -4.5692600886581252 0.024462516384278755 -0.013255268300321343 19.970108319335868 0.7389961842698638 0.078285307118487413 -46.176841406960641 1.1265929172898799 0.037790760345165118 -0.84406284027504819 1.8301857884110981 0.0057364001991831309 59.425103286482496 0.010440944546085714 -0.074100508955840652 -0.29238374552970675 5.056223251047264 0.022553741105518766 9.0800337865173351 0.094213861832318488 0.0074720824899979672 0.0013023861958595593 28002.3753716885 0.34288060512340013 22.022078580519114 0.26383930743865985 -1.0547088230662882 53.202663988081817 47.714839809182052 6.0321675643409689 15.435705857957428 0.058666592954238934 0.4931863046051469 -4.495685986800992 -0.032625791537295751 0.3295837057805957 0.0044256041830069088
decision_type=2 2 2 2 2 2 2 2 2 2 2 2 2 2 2 2 2 2 2 2 2 2 2 2 2 2 2 2 2 2 2 2 2 2 2 2 2 2 2 2 2 2 2 2 2 2 2 2 2 2
left_child=1 6 3 -3 9 10 7 8 -1 -5 11 43 -13 -14 29 33 21 -18 34 -20 -10 -17 -23 -24 25 -15 -26 -2 -29 31 -31 -12 -32 -9 -8 -36 -19 46 39 45 -41 49 -43 -4 -42 -39 -35 -44 -16 -30
right_child=27 2 5 4 -6 -7 18 15 20 -11 14 12 13 24 48 16 17 36 19 -21 -22 22 23 -25 26 -27 -28 28 41 30 32 -33 -34 37 35 -37 -38 38 -40 40 44 42 47 -45 -46 -47 -48 -49 -50 -51
leaf_value=0.73808010150195769 0.74219052799889729 0.73141666388428761 0.73808010150195769 0.65147084743363537 0.71685859445961664 0.70296074388863616 0.73768631986012723 0.71826527899156134 0.70774066673847114 0.69083762741476751 0.71443434615736157 0.64360031145680852 0.68842252569679174 0.69669129606223035 0.74276657743116448 0.74243798264296346 0.68574191636531701 0.71241942294138161 0.72018195517805872 0.69580178404570769 0.67736569587515494 0.74439994544009258 0.70259644716998571 0.72677214577143023 0.73690661559197668 0.7234615075029931 0.71400717629868515 0.71642181751917344 0.74444356994627647 0.70315773117617852 0.73492317759537995 0.73833099506711664 0.71920264759598895 0.73481706460426199 0.70987438888604282 0.72736914248182938 0.73045270327098177 0.74332894430890073 0.74030092161967953 0.70646200933002901 0.72098970746392288 0.71881990199235302 0.7422018185703203 0.72298073990365508 0.73351476249737457 0.73176295970306438 0.74287058714483101 0.73308072989113326 0.73502073908643928 0.73716911201102642
leaf_weight=32.815856844186783 62.970968455076218 45.676125168800354 32.815856844186783 17.294843971729282 21.729418873786926 34.589687347412109 22.39460501074791 20.620775043964386 22.838062763214111 14.412369787693022 23.946706533432007 2.8824740052223197 14.855827331542967 29.933383345603943 35.033144414424896 43.237108618021011 17.738301306962967 26.163994193077087 33.259314566850662 28.159553229808807 15.964471220970152 25.942265152931213 22.172876507043839 50.55415803194046 31.707213044166565 29.933383077383041 34.367958456277847 43.680566519498825 30.59856915473938 35.476602405309677 43.680566251277924 52.993174225091934 42.571922659873962 52.327987998723984 26.829180508852005 41.906736254692078 34.14622950553894 27.494366496801376 56.319105625152588 21.285961419343948 30.598569393157959 36.141788512468338 27.050908982753754 29.268196791410446 35.476602047681808 49.223785370588303 70.066288828849792 34.146229475736618 37.915618419647217 40.798092305660248
leaf_count=54 98 82 54 62 46 84 37 43 53 39 52 11 41 77 54 67 50 58 68 73 48 39 54 96 53 59 75 93 46 86 75 87 88 90 61 79 62 42 90 50 62 75 42 58 62 88 108 60 65 68
internal_value=0.725629 0.724086 0.720427 0.708326 0.688623 0.722762 0.726848 0.728785 0.714884 0.669186 0.724189 0.718712 0.713338 0.714826 0.72832 0.730484 0.725158 0.714265 0.7185 0.708967 0.695295 0.731114 0.726084 0.719457 0.71797 0.710044 0.725081 0.733553 0.730959 0.724425 0.720248 0.730961 0.72723 0.733691 0.724875 0.720609 0.722713 0.734604 0.731864 0.728927 0.722649 0.734693 0.730448 0.731059 0.727801 0.735998 0.739483 0.737224 0.738835 0.740387
internal_weight=1694.01 1418.62 611.084 99.1128 53.4366 511.972 807.536 654.987 71.6184 31.7072 477.382 205.764 143.68 140.798 271.618 583.368 219.955 78.0485 152.549 61.4189 38.8025 141.906 98.6693 72.727 125.942 59.8668 66.0752 275.387 212.416 198.669 121.729 76.9399 86.2525 363.413 91.1305 68.7359 60.3102 342.793 220.398 164.079 87.3611 168.736 97.3389 62.0841 66.0752 76.7182 122.394 61.1971 72.9488 71.3967
internal_count=3264 2782 1248 229 147 1019 1534 1216 155 101 935 428 316 305 507 1061 426 170 318 141 101 256 189 150 264 136 128 482 384 388 249 139 163 635 177 140 120 592 394 304 174 291 177 112 124 130 198 102 119 114
is_linear=0
shrinkage=1


Tree=1
num_leaves=50
num_cat=0
split_feature=16 8 35 37 2 36 4 16 28 2 18 28 31 33 16 38 17 42 28 3 3 24 10 39 38 17 11 38 3 19 20 35 28 16 28 37 4 28 11 28 8 36 13 12 21 36 19 2 11
split_gain=22.4354 55.8536 20.3496 18.1323 18.5967 21.6949 14.9737 17.6521 18.942 13.8055 12.8653 12.2115 11.4119 10.4892 10.0442 9.71078 9.91965 9.38996 9.28805 8.5264 17.3942 9.32349 9.04916 9.60031 10.3057 7.59457 6.87894 6.76309 6.17972 5.30739 4.95663 4.84632 5.14116 3.98956 6.48215 4.88355 3.65141 8.25853 4.9239 3.2405 2.98081 2.89986 2.76302 4.91967 3.31217 2.56918 1.94889 1.13677 0.609287
threshold=0.018400894203970185 34.236050179630418 1.6690207018474179 0.015068734890824227 -0.014968949252869854 0.067068647335418771 1.231250225189976 0.015937367220508505 89623.400688775218 -0.051146175637700443 0.55507836883944972 173694.59597662766 1.0000000180025095e-35 0.009022627822265759 0.016116902007748016 1.9036866798376184 0.049231977466613723 1.0000000180025095e-35 141073.82418912931 39.09013607077555 19.732273585122588 1.2195393403450814 2.4640916819656096 -0.71289461928293052 1.9426528163348598 0.039005359506906971 3.4739090794561651 1.988260764847104 7.9503172820682275 0.014439618106423744 0.017146923473274078 -0.086159480343437914 -19729.499920487717 0.034169554429175152 -90148.937113650623 -0.044807911924310335 22.528857303490636 525646.05340604333 38.680548223057151 119958.1174299954 29.518345121452064 -0.47217574896396058 -1.0547088230662882 51.880085703951131 0.0039576778398064125 -0.19343964750943551 0.014620738177927113 -0.066226543821830491 46.130749117674476
decision_type=2 2 2 2 2 2 2 2 2 2 2 2 2 2 2 2 2 2 2 2 2 2 2 2 2 2 2 2 2 2 2 2 2 2 2 2 2 2 2 2 2 2 2 2 2 2 2 2 2
left_child=1 -1 3 4 -3 12 7 8 -4 33 -8 14 25 17 -12 -14 -17 29 -7 20 22 -22 26 24 -24 -6 -15 39 -9 -11 41 -5 -33 34 35 -2 37 38 -21 -25 -37 -28 44 -44 -43 -45 -47 -36 -35
right_child=9 2 6 31 5 18 10 28 -10 13 11 -13 15 19 -16 16 -18 -19 -20 36 21 -23 23 27 -26 -27 30 -29 -30 -31 -32 32 -34 48 47 40 -38 -39 -40 -41 -42 42 43 45 -46 46 -48 -49 -50
leaf_value=-0.020277943147231227 0.013369317370299495 0.038602354246158446 -0.022575002130703799 0.042299917787200346 0.02818178894485603 -0.0096574120128175237 0.037559633684251421 0.0061252718430343557 0.016138042711182403 0.014924600348248038 0.017781819875555178 0.03257902991035011 0.039271569700650932 0.010398357527179946 -0.0072430718783954321 0.031130484796792923 0.0095892516673804339 0.043747086183491914 0.017993043244787836 0.037649309972968038 -0.0018240403025322545 0.022676184495919318 -0.0054424992348143632 0.033254495388259184 0.022557364276015839 0.0050063893149500894 0.042690869331993814 0.012424991219832246 0.027513368327661349 0.032454890398454374 0.018548035012466435 0.017565303345436864 0.035331866392698967 0.044181144408781299 0.043282685086574055 0.03688247757369241 0.038849125691885811 0.012706194080511414 0.024400927581949828 0.020490766070049037 0.023299860190827026 0.025761665494614391 0.015923315330901362 0.020721712381180552 0.039822005264086149 0.040709111849026966 0.028724721796608906 0.034088905390095535 0.03701110475094755
leaf_weight=28.061613723635674 21.319686055183411 52.243987947702408 27.574275016784668 60.06659959256649 18.688515469431877 29.755985483527184 35.956346541643143 21.13849750161171 19.145261615514755 23.494293972849846 39.378580763936043 28.135887995362282 47.22353532910347 18.509920999407768 22.479063302278519 45.267898395657539 34.485948696732521 54.172252506017685 17.142711400985718 58.731316298246384 37.312460273504257 22.056075170636177 25.104204073548317 51.019861400127411 22.016391903162003 40.976635187864304 20.645528122782707 34.59429794549942 30.167026668787003 52.736792489886284 32.52390892803669 21.317735075950623 56.430238425731659 36.796602010726929 34.37679335474968 32.672814667224884 38.431692212820053 26.568139865994453 49.456408634781837 31.283257856965065 31.253878504037857 25.915389850735664 28.401998177170753 19.120116278529167 46.9415482878685 25.691397219896317 32.720747336745262 32.117313966155052 37.46681372821331
leaf_count=83 47 86 83 94 35 81 60 50 41 51 83 50 77 42 60 82 79 83 36 98 95 44 66 90 44 98 32 77 57 94 68 45 97 56 53 55 63 59 97 64 62 50 61 39 76 41 61 56 63
internal_value=0.0252981 0.0210465 0.0228448 0.0267233 0.0223695 0.0187103 0.0154872 0.00664125 -0.00664607 0.0281554 0.0223373 0.0161871 0.0232919 0.0262334 0.00864234 0.0283957 0.0218772 0.0340773 0.000402507 0.0246429 0.0225244 0.00725045 0.0247026 0.0191437 0.00759655 0.0123507 0.0283217 0.0237621 0.0187886 0.027118 0.0297339 0.0357074 0.0305278 0.0347392 0.0317975 0.0261482 0.0304058 0.0279486 0.0316488 0.0284702 0.0303355 0.0315329 0.0302045 0.0269142 0.034904 0.0308762 0.0341076 0.0389449 0.0406587
internal_weight=1679.09 675.636 647.575 423.6 285.785 233.541 223.975 98.0251 46.7195 1003.45 125.95 89.9935 186.643 777.448 61.8576 126.977 79.7538 130.403 46.8987 647.045 473.857 59.3685 414.489 164.018 47.1206 59.6652 250.471 116.897 51.3055 76.2311 231.961 137.815 77.748 226.004 151.74 85.2464 173.188 134.756 108.188 82.3031 63.9267 199.437 178.791 105.934 72.8569 77.5323 58.4121 66.4941 74.2634
internal_count=3264 1377 1294 810 574 488 484 231 124 1887 253 193 371 1495 143 238 161 228 117 1267 950 139 811 341 110 133 470 231 107 145 428 236 142 392 273 164 317 254 195 154 117 360 328 202 126 141 102 109 119
is_linear=0
shrinkage=0.03


Tree=2
num_leaves=50
num_cat=0
split_feature=6 16 12 39 3 13 1 1 7 6 16 6 17 9 4 3 16 38 16 10 7 2 34 34 38 2 11 7 26 26 10 14 2 17 28 12 4 39 13 16 21 28 34 33 4 19 30 30 6
split_gain=21.7609 16.7306 34.6354 29.9322 20.5295 15.6448 14.7005 13.8956 19.4422 14.3068 19.9305 13.4344 16.9857 21.1112 12.2825 12.2534 10.0071 9.47727 9.17622 8.72587 7.22385 6.22747 13.0811 6.17775 10.9262 5.11821 9.47592 4.43327 8.47514 8.31905 4.35604 11.2813 4.23355 8.06494 8.99915 4.19117 17.8237 3.7221 3.23806 2.6266 2.61821 2.51175 2.18787 0.875708 1.62855 0.805217 0.601888 0.547092 0.176618
threshold=42.841206082428279 0.023126561840504597 4.9843171581879187 -1.9248955664099159 68.307568340748972 1.9769881585063007 1.0000000180025095e-35 1.0000000180025095e-35 -4.0734685223683922 20.709150537312585 0.013988972680302613 24.42238409248635 0.059978380426981302 66.836920936336654 -5.3936082790593822 20.915623626397977 0.019633558740336 1.8479007930090661 0.01312231484109283 7.4067507941224067 2.6484128102232618 -0.070480260725060917 -0.29238374552970675 0.40551821416195183 1.7347086641668763 0.010931941465745909 82.121612228113733 3.8147678577964528 0.023654192994338293 0.011482628292066753 0.78998330379787884 -1.2727901884613293 -0.0082729388961745674 0.03729709412848916 54438.723711823164 47.714839809182052 9.4027409327053437 -1.7533855767642506 -1.0547088230662882 0.029932835620333872 0.0044822626828170415 208523.86550854213 0.92531326799221969 0.016443934601710449 -14.213988472549858 0.0080448924260869692 -0.026565162303417694 0.0044256041830069088 24.670352622932374
decision_type=2 2 2 2 2 2 2 2 2 2 2 2 2 2 2 2 2 2 2 2 2 2 2 2 2 2 2 2 2 2 2 2 2 2 2 2 2 2 2 2 2 2 2 2 2 2 2 2 2
left_child=1 2 6 -4 7 20 -1 9 16 19 -11 12 14 15 -10 -14 -9 -7 -16 32 37 -2 -23 24 -12 -20 -27 -13 29 -29 -26 -32 45 -34 -35 47 -37 -3 43 40 -40 -30 -25 48 -45 -5 -47 -24 -39
right_child=21 5 3 4 -6 17 -8 8 11 10 23 27 13 -15 18 -17 -18 -19 25 -21 -22 22 35 42 30 26 -28 28 41 -31 31 -33 33 34 -36 36 -38 38 39 -41 -42 -43 -44 44 -46 46 -48 -49 -50
leaf_value=0.014268069656649774 0.040907328055139393 0.025533574304239571 -0.010188369966516553 0.032320915828470666 -0.0028961345697932823 0.026818524025852573 -0.019622092010597357 -0.0067371981450782062 0.041774120515586377 -0.004603246136513567 0.0066076400406904203 0.041359524351596698 0.010113338429184205 0.024456605827124136 0.0010452378581123844 -0.02040762917008514 0.019622055395119502 0.0065284503075618361 0.034815526426538998 0.018188054902730701 0.01735675697155474 0.014450010292006479 0.043515900619977524 0.038342765950738988 0.03282043137649035 0.0060997767049686203 0.029658744354087253 0.030304799140600247 0.02569192820491709 0.005950897959399664 -0.0011566557316290103 0.028558533124367552 0.041919548966348967 0.0078202565615669919 0.031530273248473337 0.012179122039971882 0.039355395023287471 0.037835182826955444 0.026906827587788004 0.022368798232875207 0.039716120354232845 0.037728426678755568 0.026895445115908433 0.041403227351686556 0.030480826800106157 0.036952832244228837 0.043139442235253338 0.036322651864375347 0.0437397888125034
leaf_weight=21.034889042377472 64.730410113930702 48.877772226929665 24.505100756883621 23.477742940187454 25.999108403921127 43.412517353892326 25.12226839363575 33.84978275001049 28.507417127490044 22.57051494717598 35.150173857808113 24.564480543136597 21.941930368542671 35.142922639846802 20.147683665156364 25.308223724365234 20.79828841984272 40.628740906715393 26.533001959323883 34.712098568677902 29.222466260194778 40.272276103496552 29.750093877315521 32.597265660762787 48.308554947376251 29.106327891349792 33.532038763165474 24.02789506316185 27.88954108953476 27.392330884933472 15.753053918480871 40.579468593001366 33.553072199225426 22.297383666038513 43.150106340646744 34.844785928726196 59.84370855987072 29.98021212220192 29.8532375395298 27.841300800442696 35.67719978094101 48.44772344827652 36.657314166426659 25.814372673630714 35.990833565592766 52.051691189408302 46.351861357688904 39.917948633432388 36.38733834028244
leaf_count=46 104 95 67 42 67 83 74 90 45 59 83 39 50 69 50 75 43 96 46 73 62 88 46 54 86 69 62 44 54 65 40 76 53 52 78 78 98 50 57 56 58 81 70 41 66 88 72 68 56
internal_value=0.0247689 0.0232498 0.021209 0.0224238 0.0232778 0.0286131 -0.00411525 0.0240255 0.0200388 0.02751 0.0220488 0.0224909 0.0177034 0.00686504 0.0241512 -0.00617958 0.00325748 0.0170646 0.0194942 0.0324366 0.0318353 0.0326121 0.0299547 0.0249416 0.0212173 0.0236232 0.0187865 0.0293766 0.0270186 0.0174261 0.0260853 0.0202084 0.034653 0.0298239 0.0235225 0.0337245 0.0294097 0.0333818 0.0350875 0.0305749 0.0339763 0.0334095 0.0323743 0.038325 0.0351508 0.0385232 0.0399383 0.0394953 0.0411786
internal_weight=1664.11 1394.75 1011.06 964.904 940.399 383.686 46.1572 914.4 427.19 487.21 231.616 372.542 220.22 82.3931 137.826 47.2502 54.6481 84.0413 109.319 255.594 299.645 269.359 204.629 209.046 139.791 89.1714 62.6384 152.322 127.757 51.4202 104.641 56.3325 220.882 99.0006 65.4475 164.357 94.6885 270.422 221.544 93.3717 65.5304 76.3373 69.2546 128.173 61.8052 121.881 98.4036 69.668 66.3676
internal_count=3264 2782 2062 1942 1875 720 120 1808 882 926 468 749 466 194 272 125 133 179 227 458 541 482 378 409 285 177 131 283 244 109 202 116 385 183 130 290 176 479 384 171 115 135 124 213 107 202 160 114 106
is_linear=0
shrinkage=0.03


Tree=3
num_leaves=51
num_cat=0
split_feature=16 8 35 26 2 2 7 36 36 2 36 7 33 16 33 16 3 39 6 19 35 24 33 3 3 7 2 6 29 6 42 26 14 24 6 6 16 17 16 8 8 41 17 39 36 39 36 7 35 21
split_gain=21.3524 52.8014 20.3629 16.2789 13.7159 13.5892 28.5361 12.1295 11.7487 16.1248 14.3069 10.3398 10.328 18.7786 9.5315 9.08378 11.2108 8.49827 6.79111 5.98009 5.9941 5.7667 5.73315 5.50373 19.9918 14.0482 9.90383 9.80427 7.33815 11.6842 5.20272 4.90678 13.1703 4.22138 3.92212 3.91917 4.17667 3.66253 3.90383 3.80657 10.4622 3.61047 3.11317 4.78135 4.62332 2.97102 1.41304 0.335357 0.322481 0.000303251
threshold=0.018249593384307105 34.236050179630418 1.6690207018474179 -0.015404997167485307 -0.051146175637700443 -0.0082729388961745674 -2.3458073471318115 -0.19697352520384895 -0.030008014735612241 -0.016699457910327016 -0.41486375880916709 -12.106994810565508 0.0050380330103393309 0.014454550590210178 0.009022627822265759 0.021351545427118038 -43.719024552002104 0.63675200171850554 37.467686209780908 0.0119667729105078 3.2212509951485959 0.94851149474464425 0.010053904122756132 39.09013607077555 11.283801883949993 4.9361156548700036 0.012589816685047437 24.934311626716205 -37258.417822591597 33.505486425126932 1.0000000180025095e-35 -0.062387409924525995 -5.0057712147299238 0.84356292261569643 20.985511083781866 24.42238409248635 0.02122840002708019 0.049231977466613723 0.014054510031417871 47.608030090788041 64.367592083746771 1.0000000180025095e-35 0.056240704150862693 0.039158313296119983 -0.042618989875152273 1.5982528647346499 -0.067939761496290593 -2.9535514924952344 2.2973730035820386 0.0031121689465973619
decision_type=2 2 2 2 2 2 2 2 2 2 2 2 2 2 2 2 2 2 2 2 2 2 2 2 2 2 2 2 2 2 2 2 2 2 2 2 2 2 2 2 2 2 2 2 2 2 2 2 2 2
left_child=1 -1 8 -4 18 34 -7 -8 10 -10 -3 15 -11 -14 30 -6 -17 -15 31 -9 -21 -19 -16 24 27 26 -26 42 -29 -30 33 -2 -33 -13 -5 -25 -37 38 -12 -39 -41 45 -24 44 -44 -38 -20 -40 -48 -49
right_child=4 2 3 5 11 6 7 19 9 12 37 14 13 17 22 16 -18 21 46 20 -22 -23 23 35 25 -27 -28 28 29 -31 -32 32 -34 -35 -36 36 41 39 47 40 -42 -43 43 -45 -46 -47 48 49 -50 -51
leaf_value=-0.020732200628526199 0.037773023777757771 0.012136796127859019 -0.012687223173911324 0.037542286739687555 0.0038952514749866743 -0.025771992923214498 -0.0034534467404963021 0.029667981160482224 0.040967238061452173 0.039076015050309713 0.02727396032343184 0.020652178718369777 -0.007504795311053988 0.0033305059498721242 0.013633325039567833 0.0055304000049500148 0.031199454912912372 0.0351732959292489 0.033273571690179984 0.002694688722042789 0.022935065662020325 0.016175452466176219 0.038695966799915549 0.018732358741308703 0.0068289081857485319 -0.0024778926604598849 0.03234786548398861 0.030546931021555396 -0.001226350998896613 0.026049658951231403 0.042068177591066312 0.0057498577917359482 0.034069696784540207 0.036013881473621098 0.021669683389107602 0.040118781839168283 0.016446181134484757 0.038899186589963747 0.035282525883418056 0.009368986695209254 0.034322253845686407 0.036020410742827337 0.038314421882739695 0.019526522405486746 0.023740152824041152 0.030873903969609463 0.042791489851877543 0.038311356285791416 0.036920444915316014 0.043404730223054501
leaf_weight=27.312619864940643 27.390710771083832 36.072869315743446 18.253171846270561 26.13282573223114 35.875396862626076 16.17752380669117 21.984929859638214 42.122083991765976 25.527341991662979 14.033575981855391 36.662121593952179 32.59147909283638 32.43981097638607 22.160186871886253 39.793779835104942 23.454720854759216 46.054980650544167 28.313327461481094 47.675195008516312 23.259316027164459 31.49030239880085 31.563150629401207 48.891725733876228 23.889532193541527 25.018747508525848 37.782938122749329 31.270218327641487 34.807335019111633 27.118636414408684 28.953599482774734 48.509828343987465 25.995902433991432 35.207485467195511 36.116434946656227 34.998094454407692 44.861884444952011 28.811208784580231 21.169704511761665 29.436453178524971 26.924993574619293 35.917956009507179 36.655954226851463 57.007604718208313 34.632910013198853 33.196660682559013 26.235445410013199 52.214512556791306 29.99143148958683 32.946584358811378 34.136278390884399
leaf_count=81 46 81 51 44 87 50 57 78 41 23 70 67 87 54 88 56 84 49 85 57 63 68 81 50 59 97 56 64 69 56 77 62 62 62 71 73 62 35 51 62 63 63 95 72 66 48 82 50 56 53
internal_value=0.0242541 0.0199753 0.0217801 0.014264 0.0270051 0.0167923 0.0114282 0.0165341 0.0257538 0.019156 0.0297927 0.0251143 0.0147716 0.0117344 0.0264854 0.0162716 0.0226014 0.0193786 0.0336511 0.0211001 0.0144116 0.0252525 0.024824 0.0256732 0.0235512 0.0116003 0.0210909 0.0277826 0.0196722 0.0128259 0.0343543 0.0270296 0.0221189 0.0288113 0.0285543 0.0303805 0.032381 0.0327445 0.0360068 0.0276152 0.0237106 0.0285234 0.0319941 0.0293165 0.0330163 0.0234204 0.0380209 0.0393638 0.0406013 0.0411327
internal_weight=1649.04 646.08 618.767 214.418 1002.96 196.165 135.034 118.857 404.349 154.037 250.312 781.531 128.51 114.476 676.146 105.385 69.5097 82.0367 221.43 96.8717 54.7496 59.8765 558.928 519.134 358.68 94.0719 56.289 264.608 90.8796 56.0722 117.218 88.5941 61.2034 68.7079 61.1309 160.454 136.564 214.239 130.226 84.0127 62.8429 91.7026 173.729 124.837 90.2043 55.0467 132.836 93.5642 85.1611 64.1277
internal_count=3264 1339 1258 471 1925 420 305 255 787 322 465 1532 281 258 1305 227 140 171 393 198 120 117 1099 1011 715 212 115 503 189 125 206 170 124 129 115 296 246 384 224 160 125 173 314 233 161 110 223 154 138 103
is_linear=0
shrinkage=0.03


Tree=4
num_leaves=49
num_cat=0
split_feature=6 16 12 8 1 11 37 13 1 6 6 16 34 30 36 35 10 34 6 33 6 4 7 28 12 2 34 12 36 35 37 37 37 36 4 12 6 6 2 10 38 26 19 34 32 16 32 19
split_gain=20.7969 15.9243 32.6757 20.5362 18.8484 18.7238 36.7247 14.9558 13.76 13.5032 13.2435 18.0549 11.937 10.487 14.8131 9.42372 8.51437 7.63171 7.18871 15.33 11.5349 9.46183 6.9105 6.43458 7.67818 5.98037 12.6776 5.92141 5.68119 5.01409 4.75679 4.54492 8.56761 4.46178 4.55224 11.993 3.95261 8.00605 6.25367 3.89958 3.19505 2.86599 1.95105 3.14514 2.17879 1.47463 0.485011 0.436165
threshold=42.841206082428279 0.023126561840504597 4.9843171581879187 33.967086603624644 1.0000000180025095e-35 82.121612228113733 -0.044350582931433992 1.9769881585063007 1.0000000180025095e-35 30.888698942566197 19.970108319335868 0.014054510031417871 -0.90540072522399551 0.13173625299223515 0.041587498841674037 1.3445499939543737 7.4067507941224067 -0.15327616855631707 27.992000968739802 0.0060039375473896232 16.761430301171959 -8.017024515945975 2.6484128102232618 173694.59597662766 90.491155572750941 -0.070480260725060917 -0.29238374552970675 23.732930091150436 -0.33509844536513178 -0.32685748472847725 -0.070188099197050394 -0.029680526225783908 0.0020005132448765992 -0.2628670602023177 9.4027409327053437 36.895187407300192 12.793715136535363 15.80036968488991 -0.012630298803630077 4.5879773829290551 1.838680739750868 0.043554629446064828 0.030098494594003506 -0.82152992697910687 -0.0039611494727413476 0.016653226930626944 0.00020420527736459416 0.011592440956669196
decision_type=2 2 2 2 2 2 2 2 2 2 2 2 2 2 2 2 2 2 2 2 2 2 2 2 2 2 2 2 2 2 2 2 2 2 2 2 2 2 2 2 2 2 2 2 2 2 2 2
left_child=1 2 8 -4 10 6 9 22 -1 -6 16 -12 -8 17 -15 -9 36 -14 19 -19 -21 -22 30 24 -7 -2 -27 -13 -29 -30 -3 -31 -33 -28 35 -35 -5 38 -38 42 -39 -25 44 -44 -32 -34 -46 -42
right_child=25 7 3 4 5 23 12 15 -10 -11 11 27 13 14 -16 -17 -18 18 -20 20 21 -23 -24 41 -26 26 33 28 29 31 39 32 45 34 -36 -37 37 40 -40 -41 47 -43 43 -45 46 -47 -48 -49
leaf_value=0.013558621195590833 0.03977529307606547 0.019050655630454848 -0.0051744852322606104 0.042795343805342646 -0.021260084609645593 0.030545343471917306 -0.0035477471801163428 0.0035817144578659723 -0.019301577872514762 0.011674209225158829 -0.001828942455750138 0.010683656793899713 0.034282158023695171 -0.0045733982137172195 0.024522069573757809 0.024381548355027784 0.01660390946260884 -0.01479973159744692 0.031701387220848462 0.032632162215361082 0.024408460664884123 -0.00089557235925671029 0.016497438911645748 0.04119905165763494 0.010078147261576792 0.013542428225797716 0.018035772385346489 0.008343820538543328 0.0076953980161245487 0.037352388656002891 0.030405252658845514 0.013663076791062739 0.02438483289141646 0.03888360543499262 0.041300879722337966 0.015693884739666087 0.034377000622371937 0.027892309704796697 0.013155937909514715 0.023279943641480227 0.04291761302388522 0.027470641564095375 0.038144211410756718 0.024992917395968619 0.04173924395747524 0.034196164081348145 0.035602075959861167 0.036591829341608886
leaf_weight=20.808071702718735 62.78905077278614 23.776317000389099 25.160298600792885 37.93974381685257 32.45748744904995 35.274284020066261 20.765977203845978 32.848984330892563 25.193060770630836 16.87668177485466 26.618291273713112 26.345928877592087 46.020712092518806 32.784000307321548 29.917853370308876 50.075362801551819 31.184583187103271 12.636081203818319 35.820313185453415 38.988968923687935 24.866892457008362 27.977204665541649 28.836865290999413 31.107889443635941 32.250907018780708 39.735219106078148 17.923044741153717 15.434654593467711 11.059530958533285 44.927678555250168 35.636801645159721 37.037831276655197 23.774530023336411 52.712110221385956 56.347998172044754 33.596201434731483 21.530336141586304 33.111194610595703 31.821308985352516 31.437235504388809 36.818361520767212 30.356625914573669 31.530669569969177 41.545376613736153 67.412479519844055 56.10727995634079 32.802243307232857 41.973297089338303
leaf_count=46 104 50 66 60 97 65 54 80 74 38 68 60 81 86 59 99 67 36 65 70 49 71 62 50 74 88 38 36 26 76 66 82 47 88 91 73 38 63 71 63 58 58 53 82 108 99 57 72
internal_value=0.0237526 0.0222586 0.0202547 0.0214521 0.0221811 0.0177371 0.0138117 0.0275479 -0.00437541 -0.00993211 0.0263564 0.0213654 0.0181669 0.0199905 0.00927852 0.0161924 0.0314708 0.0235726 0.0200161 0.0159543 0.0202301 0.0109787 0.030745 0.027407 0.0208437 0.0315142 0.0288912 0.0242546 0.0261304 0.0276951 0.0322823 0.0290376 0.0257877 0.0326598 0.0344622 0.0299201 0.0337284 0.031604 0.0218242 0.0335702 0.0362163 0.0345231 0.0350923 0.0307528 0.0373802 0.0313478 0.0397978 0.0396365
internal_weight=1633.95 1370.85 994.948 948.947 923.786 448.102 319.112 375.902 46.0011 49.3342 475.685 241.306 269.778 249.012 62.7019 82.9243 234.379 186.31 140.289 104.469 91.8331 52.8441 292.978 128.99 67.5252 263.104 200.315 214.687 188.342 172.907 264.141 161.847 116.92 160.579 142.656 86.3083 203.194 165.254 53.3516 240.365 111.903 61.4645 208.928 73.076 135.852 79.8818 100.215 78.7917
internal_count=3264 2782 2062 1942 1876 953 706 720 120 135 923 494 571 517 145 179 429 372 291 226 190 120 541 247 139 482 378 426 366 330 479 304 228 290 252 161 362 302 109 429 193 108 366 135 231 146 165 130
is_linear=0
shrinkage=0.03


end of trees

feature_importances:
adx=22
atr_pct=17
price_vs_ema50=14
ret_skew_20=13
macd=11
autocorr_1=11
di_diff=10
cvd_cum=10
bb_width=9
ret_kurt_20=9
stochrsi_d=8
hurst=8
macd_hist=7
rsi_slope=7
stochrsi_k=7
roc_5=7
candle_range=7
vwap_dev=7
ret_std_10=7
entropy=7
price_zscore=7
rsi_14=6
ema_21_50_cross=5
tfi=5
roc_10=3
upper_wick=3
vol_ratio=3
rsi_7=2
candle_body=2
cvd_slope=2
ret_mean_10=2
regime_squeeze=2
roc_20=1
bb_position=1
lower_wick=1
consecutive_dir=1
regime_high_vol=1
price_above_ema200=1

parameters:
[boosting: gbdt]
[objective: binary]
[metric: auc]
[tree_learner: serial]
[device_type: cpu]
[data_sample_strategy: bagging]
[data: ]
[valid: ]
[num_iterations: 1000]
[learning_rate: 0.03]
[num_leaves: 63]
[num_threads: 0]
[seed: 0]
[deterministic: 0]
[force_col_wise: 0]
[force_row_wise: 0]
[histogram_pool_size: -1]
[max_depth: -1]
[min_data_in_leaf: 50]
[min_sum_hessian_in_leaf: 0.001]
[bagging_fraction: 0.8]
[pos_bagging_fraction: 1]
[neg_bagging_fraction: 1]
[bagging_freq: 5]
[bagging_seed: 3]
[bagging_by_query: 0]
[feature_fraction: 0.8]
[feature_fraction_bynode: 1]
[feature_fraction_seed: 2]
[extra_trees: 0]
[extra_seed: 6]
[early_stopping_round: 0]
[early_stopping_min_delta: 0]
[first_metric_only: 0]
[max_delta_step: 0]
[lambda_l1: 0.1]
[lambda_l2: 0.1]
[linear_lambda: 0]
[min_gain_to_split: 0]
[drop_rate: 0.1]
[max_drop: 50]
[skip_drop: 0.5]
[xgboost_dart_mode: 0]
[uniform_drop: 0]
[drop_seed: 4]
[top_rate: 0.2]
[other_rate: 0.1]
[min_data_per_group: 100]
[max_cat_threshold: 32]
[cat_l2: 10]
[cat_smooth: 10]
[max_cat_to_onehot: 4]
[top_k: 20]
[monotone_constraints: ]
[monotone_constraints_method: basic]
[monotone_penalty: 0]
[feature_contri: ]
[forcedsplits_filename: ]
[refit_decay_rate: 0.9]
[cegb_tradeoff: 1]
[cegb_penalty_split: 0]
[cegb_penalty_feature_lazy: ]
[cegb_penalty_feature_coupled: ]
[path_smooth: 0]
[interaction_constraints: ]
[verbosity: -1]
[saved_feature_importance_type: 0]
[use_quantized_grad: 0]
[num_grad_quant_bins: 4]
[quant_train_renew_leaf: 0]
[stochastic_rounding: 1]
[linear_tree: 0]
[max_bin: 255]
[max_bin_by_feature: ]
[min_data_in_bin: 3]
[bin_construct_sample_cnt: 200000]
[data_random_seed: 1]
[is_enable_sparse: 1]
[enable_bundle: 1]
[use_missing: 1]
[zero_as_missing: 0]
[feature_pre_filter: 1]
[pre_partition: 0]
[two_round: 0]
[header: 0]
[label_column: ]
[weight_column: ]
[group_column: ]
[ignore_column: ]
[categorical_feature: ]
[forcedbins_filename: ]
[precise_float_parser: 0]
[parser_config_file: ]
[objective_seed: 5]
[num_class: 1]
[is_unbalance: 0]
[scale_pos_weight: 3]
[sigmoid: 1]
[boost_from_average: 1]
[reg_sqrt: 0]
[alpha: 0.9]
[fair_c: 1]
[poisson_max_delta_step: 0.7]
[tweedie_variance_power: 1.5]
[lambdarank_truncation_level: 30]
[lambdarank_norm: 1]
[label_gain: ]
[lambdarank_position_bias_regularization: 0]
[eval_at: ]
[multi_error_top_k: 1]
[auc_mu_weights: ]
[num_machines: 1]
[local_listen_port: 12400]
[time_out: 120]
[machine_list_filename: ]
[machines: ]
[gpu_platform_id: -1]
[gpu_device_id: -1]
[gpu_use_dp: 0]
[num_gpu: 1]

end of parameters

pandas_categorical:[]
